{"learner":{"attributes":{},"feature_names":[],"feature_types":[],"gradient_booster":{"model":{"cats":{"enc":[],"feature_segments":[],"sorted_idx":[]},"gbtree_model_param":{"num_parallel_tree":"1","num_trees":"20"},"iteration_indptr":[0,1,2,3,4,5,6,7,8,9,10,11,12,13,14,15,16,17,18,19,20],"tree_info":[0,0,0,0,0,0,0,0,0,0,0,0,0,0,0,0,0,0,0,0],"trees":[{"base_weights":[-8.3040526E-8,-2.3287767E-1,5.290359E-1,-7.24036E-1,1.0394305E-1,-3.7178463E-1,1.1143447E0,-3.9706358E-1,-3.8597643E-2,3.324767E-1,-4.3681532E-2,1.3363516E-1,-3.6128458E-1,1.3363516E-1,3.9609644E-1],"categories":[],"categories_nodes":[],"categories_segments":[],"categories_sizes":[],"default_left":[0,0,0,0,0,0,0,0,0,0,0,0,0,0,0],"id":0,"left_children":[1,3,5,7,9,11,13,-1,-1,-1,-1,-1,-1,-1,-1],"loss_changes":[3.3067052E0,3.1583207E0,4.7397113E0,2.5805345E0,3.151216E0,3.244769E0,1.3144207E-1,0E0,0E0,0E0,0E0,0E0,0E0,0E0,0E0],"parents":[2147483647,0,0,1,1,2,2,3,3,4,4,5,5,6,6],"right_children":[2,4,6,8,10,12,14,-1,-1,-1,-1,-1,-1,-1,-1],"split_conditions":[7.709672E1,3.6019066E1,4.31945E1,3.2518333E1,5.1832966E1,6.0956432E1,6.451728E1,-3.9706358E-1,-3.8597643E-2,3.324767E-1,-4.3681532E-2,1.3363516E-1,-3.6128458E-1,1.3363516E-1,3.9609644E-1],"split_indices":[1,2,0,1,2,2,0,0,0,0,0,0,0,0,0],"split_type":[0,0,0,0,0,0,0,0,0,0,0,0,0,0,0],"sum_hessian":[2.484E1,1.76364E1,7.2036E0,6.7068E0,1.09296E1,2.9808002E0,4.2228003E0,2.7324E0,3.9744E0,1.4904001E0,9.4392E0,1.7388E0,1.242E0,1.7388E0,2.484E0],"tree_param":{"num_deleted":"0","num_feature":"3","num_nodes":"15","size_leaf_vector":"1"}},{"base_weights":[7.920183E-3,-1.7064215E-1,4.2267072E-1,8.503552E-2,-7.286051E-1,-3.190861E-1,9.212835E-1,-2.5809887E-1,8.850758E-2,-3.3072197E-1,-1.07185036E-1,1.0939678E-1,-3.016355E-1,1.0939678E-1,3.2964382E-1],"categories":[],"categories_nodes":[],"categories_segments":[],"categories_sizes":[],"default_left":[0,0,0,0,0,0,0,0,0,0,0,0,0,0,0],"id":1,"left_children":[1,3,5,7,9,11,13,-1,-1,-1,-1,-1,-1,-1,-1],"loss_changes":[1.9647918E0,2.7121677E0,3.2449872E0,2.9606104E0,4.3091202E-1,2.2204583E0,9.624338E-2,0E0,0E0,0E0,0E0,0E0,0E0,0E0,0E0],"parents":[2147483647,0,0,1,1,2,2,3,3,4,4,5,5,6,6],"right_children":[2,4,6,8,10,12,14,-1,-1,-1,-1,-1,-1,-1,-1],"split_conditions":[7.709672E1,6.625223E1,4.31945E1,9.310277E0,2.4205526E1,6.0956432E1,6.451728E1,-2.5809887E-1,8.850758E-2,-3.3072197E-1,-1.07185036E-1,1.0939678E-1,-3.016355E-1,1.0939678E-1,3.2964382E-1],"split_indices":[1,0,0,1,2,2,0,0,0,0,0,0,0,0,0],"split_type":[0,0,0,0,0,0,0,0,0,0,0,0,0,0,0],"sum_hessian":[2.4556255E1,1.7577284E1,6.978972E0,1.2635063E1,4.9422207E0,2.9501944E0,4.0287776E0,1.7335745E0,1.0901488E1,1.4817266E0,3.460494E0,1.712728E0,1.2374665E0,1.712728E0,2.3160498E0],"tree_param":{"num_deleted":"0","num_feature":"3","num_nodes":"15","size_leaf_vector":"1"}},{"base_weights":[-7.853843E-3,-1.3267994E-1,4.0987098E-1,1.7186422E-2,-3.0038643E-1,7.239178E-1,-1.00254185E-1,-9.894279E-2,1.7962697E-1,7.738984E-2,2.9419774E-1],"categories":[],"categories_nodes":[],"categories_segments":[],"categories_sizes":[],"default_left":[0,0,0,0,0,0,0,0,0,0,0],"id":2,"left_children":[1,3,5,7,-1,9,-1,-1,-1,-1,-1],"loss_changes":[1.3574407E0,2.620195E0,1.6425408E0,3.8373408E0,0E0,2.8904557E-1,0E0,0E0,0E0,0E0,0E0],"parents":[2147483647,0,0,1,1,2,2,3,3,5,5],"right_children":[2,4,6,8,-1,10,-1,-1,-1,-1,-1],"split_conditions":[7.699935E1,6.970158E1,9.2831856E1,6.4547226E1,-3.0038643E-1,3.636296E1,-1.00254185E-1,-9.894279E-2,1.7962697E-1,7.738984E-2,2.9419774E-1],"split_indices":[2,2,2,1,0,0,0,0,0,0,0],"split_type":[0,0,0,0,0,0,0,0,0,0,0],"sum_hessian":[2.3990124E1,1.8996033E1,4.9940915E0,1.7036785E1,1.9592487E0,3.530858E0,1.4632332E0,1.0941439E1,6.095346E0,1.9665673E0,1.5642908E0],"tree_param":{"num_deleted":"0","num_feature":"3","num_nodes":"11","size_leaf_vector":"1"}},{"base_weights":[-1.9433767E-3,-3.733177E-1,1.4020905E-1,-7.919254E-1,9.6041545E-2,4.0355405E-1,-9.136493E-2,-7.704424E-2,-3.0221182E-1,-1.5697151E-1,2.0065206E-1,1.727138E-2,3.4970534E-1,-1.7121261E-1,9.764311E-2],"categories":[],"categories_nodes":[],"categories_segments":[],"categories_sizes":[],"default_left":[0,0,0,0,0,0,0,0,0,0,0,0,0,0,0],"id":3,"left_children":[1,3,5,7,9,11,13,-1,-1,-1,-1,-1,-1,-1,-1],"loss_changes":[1.346517E0,1.4630103E0,1.1623648E0,1.8393445E-1,1.8467712E0,2.2585928E0,2.3108525E0,0E0,0E0,0E0,0E0,0E0,0E0,0E0,0E0],"parents":[2147483647,0,0,1,1,2,2,3,3,4,4,5,5,6,6],"right_children":[2,4,6,8,10,12,14,-1,-1,-1,-1,-1,-1,-1,-1],"split_conditions":[2.4205526E1,5.1879063E1,6.118529E1,1.6080805E1,9.028977E0,5.3934223E1,7.5555115E1,-7.704424E-2,-3.0221182E-1,-1.5697151E-1,2.0065206E-1,1.727138E-2,3.4970534E-1,-1.7121261E-1,9.764311E-2],"split_indices":[2,1,2,2,2,2,2,0,0,0,0,0,0,0,0],"split_type":[0,0,0,0,0,0,0,0,0,0,0,0,0,0,0],"sum_hessian":[2.3514706E1,6.0590944E0,1.745561E1,2.8394365E0,3.219658E0,7.820038E0,9.635573E0,1.4442717E0,1.395165E0,1.5886335E0,1.6310245E0,6.118139E0,1.701899E0,4.3100934E0,5.3254795E0],"tree_param":{"num_deleted":"0","num_feature":"3","num_nodes":"15","size_leaf_vector":"1"}},{"base_weights":[-2.5625725E-3,4.4327617E-1,-1.065147E-1,2.4301586E-1,-4.4440694E-2,-3.26919E-1,1.5371655E-1,-2.875093E-1,-1.5424077E-2,2.7697712E-1,-4.4515315E-2],"categories":[],"categories_nodes":[],"categories_segments":[],"categories_sizes":[],"default_left":[0,0,0,0,0,0,0,0,0,0,0],"id":4,"left_children":[1,3,5,-1,-1,7,9,-1,-1,-1,-1],"loss_changes":[1.1669737E0,1.1529468E0,1.2202551E0,0E0,0E0,1.9277599E0,2.4698021E0,0E0,0E0,0E0,0E0],"parents":[2147483647,0,0,1,1,2,2,5,5,6,6],"right_children":[2,4,6,-1,-1,8,10,-1,-1,-1,-1],"split_conditions":[1.40924225E1,6.0956432E1,5.3934223E1,2.4301586E-1,-4.4440694E-2,3.0461376E1,1.15869055E1,-2.875093E-1,-1.5424077E-2,2.7697712E-1,-4.4515315E-2],"split_indices":[0,2,2,0,0,0,1,0,0,0,0],"split_type":[0,0,0,0,0,0,0,0,0,0,0],"sum_hessian":[2.31609E1,3.7619774E0,1.9398922E1,2.093781E0,1.6681963E0,1.036444E1,9.034483E0,2.3954997E0,7.9689407E0,1.9672341E0,7.0672483E0],"tree_param":{"num_deleted":"0","num_feature":"3","num_nodes":"11","size_leaf_vector":"1"}},{"base_weights":[4.557459E-3,-1.6217744E-1,7.987159E-2,2.637203E-1,-7.1833897E-3,1.4205907E-1,-3.8450714E-2],"categories":[],"categories_nodes":[],"categories_segments":[],"categories_sizes":[],"default_left":[0,0,0,0,0,0,0],"id":5,"left_children":[1,-1,3,-1,5,-1,-1],"loss_changes":[1.0277519E0,0E0,1.5328275E0,0E0,1.2691019E0,0E0,0E0],"parents":[2147483647,0,0,2,2,4,4],"right_children":[2,-1,4,-1,6,-1,-1],"split_conditions":[9.310277E0,-1.6217744E-1,1.15869055E1,2.637203E-1,1.40924225E1,1.4205907E-1,-3.8450714E-2],"split_indices":[1,0,1,0,0,0,0],"split_type":[0,0,0,0,0,0,0],"sum_hessian":[2.2980415E1,2.0395615E0,2.0940853E1,1.1633193E0,1.9777534E1,3.3908195E0,1.6386715E1],"tree_param":{"num_deleted":"0","num_feature":"3","num_nodes":"7","size_leaf_vector":"1"}},{"base_weights":[1.2404017E-2,-1.3298173E-1,7.3989965E-2,2.3192146E-1,3.2192608E-4,5.812132E-2,-5.7421427E-2],"categories":[],"categories_nodes":[],"categories_segments":[],"categories_sizes":[],"default_left":[0,0,0,0,0,0,0],"id":6,"left_children":[1,-1,3,-1,5,-1,-1],"loss_changes":[6.996911E-1,0E0,1.1220138E0,0E0,8.052374E-1,0E0,0E0],"parents":[2147483647,0,0,2,2,4,4],"right_children":[2,-1,4,-1,6,-1,-1],"split_conditions":[9.310277E0,-1.3298173E-1,1.15869055E1,2.3192146E-1,5.1832966E1,5.812132E-2,-5.7421427E-2],"split_indices":[1,0,1,0,2,0,0],"split_type":[0,0,0,0,0,0,0],"sum_hessian":[2.2763927E1,1.9724061E0,2.0791521E1,1.0770204E0,1.97145E1,9.808798E0,9.905704E0],"tree_param":{"num_deleted":"0","num_feature":"3","num_nodes":"7","size_leaf_vector":"1"}},{"base_weights":[1.3368373E-2,-2.9576126E-1,1.3171895E-1,-6.865834E-1,1.1955708E-1,3.4270546E-1,-5.0695155E-2,-5.6952085E-2,-2.7326173E-1,-1.03288814E-1,1.6655524E-1,2.1427928E-2,2.8357223E-1,-1.233673E-1,1.647331E-1],"categories":[],"categories_nodes":[],"categories_segments":[],"categories_sizes":[],"default_left":[0,0,0,0,0,0,0,0,0,0,0,0,0,0,0],"id":7,"left_children":[1,3,5,7,9,11,13,-1,-1,-1,-1,-1,-1,-1,-1],"loss_changes":[9.010245E-1,1.190975E0,6.99796E-1,2.3574054E-1,1.0325013E0,1.2974341E0,2.4706032E0,0E0,0E0,0E0,0E0,0E0,0E0,0E0,0E0],"parents":[2147483647,0,0,1,1,2,2,3,3,4,4,5,5,6,6],"right_children":[2,4,6,8,10,12,14,-1,-1,-1,-1,-1,-1,-1,-1],"split_conditions":[2.4205526E1,5.1879063E1,6.118529E1,1.6080805E1,9.028977E0,5.3934223E1,5.5680126E1,-5.6952085E-2,-2.7326173E-1,-1.03288814E-1,1.6655524E-1,2.1427928E-2,2.8357223E-1,-1.233673E-1,1.647331E-1],"split_indices":[2,1,2,2,2,2,0,0,0,0,0,0,0,0,0],"split_type":[0,0,0,0,0,0,0,0,0,0,0,0,0,0,0],"sum_hessian":[2.2562971E1,5.831685E0,1.6731287E1,2.667948E0,3.1637373E0,7.3506017E0,9.380685E0,1.4042658E0,1.2636821E0,1.6337663E0,1.5299709E0,5.839866E0,1.5107358E0,6.0553546E0,3.32533E0],"tree_param":{"num_deleted":"0","num_feature":"3","num_nodes":"15","size_leaf_vector":"1"}},{"base_weights":[1.3745137E-2,-8.691398E-2,3.0593774E-1,2.683116E-2,-2.6092294E-1,6.632629E-1,-2.750463E-1,-6.068914E-2,1.2312215E-1,3.302173E-1,-2.0431481E-2,-1.5202264E-2,-1.0924924E-1],"categories":[],"categories_nodes":[],"categories_segments":[],"categories_sizes":[],"default_left":[0,0,0,0,0,0,0,0,0,0,0,0,0],"id":8,"left_children":[1,3,5,7,-1,9,11,-1,-1,-1,-1,-1,-1],"loss_changes":[7.0613116E-1,1.6228282E0,1.4573393E0,1.5467385E0,0E0,1.385345E0,4.244359E-2,0E0,0E0,0E0,0E0,0E0,0E0],"parents":[2147483647,0,0,1,1,2,2,3,3,5,5,6,6],"right_children":[2,4,6,8,-1,10,12,-1,-1,-1,-1,-1,-1],"split_conditions":[7.5555115E1,6.970158E1,6.3310146E1,6.4547226E1,-2.6092294E-1,3.4920956E1,8.9482735E1,-6.068914E-2,1.2312215E-1,3.302173E-1,-2.0431481E-2,-1.5202264E-2,-1.0924924E-1],"split_indices":[2,2,1,1,0,0,2,0,0,0,0,0,0],"split_type":[0,0,0,0,0,0,0,0,0,0,0,0,0],"sum_hessian":[2.2104324E1,1.6963139E1,5.1411843E0,1.5654294E1,1.3088449E0,3.0956397E0,2.0455446E0,1.00960455E1,5.5582485E0,1.6210194E0,1.4746202E0,1.0274223E0,1.0181224E0],"tree_param":{"num_deleted":"0","num_feature":"3","num_nodes":"13","size_leaf_vector":"1"}},{"base_weights":[9.9125495E-3,-2.6672155E-1,1.14452004E-1,-5.585216E-1,5.500142E-2,3.695207E-1,-1.3650769E-2,-3.704782E-2,-2.3435403E-1,-9.247978E-2,1.2853402E-1,2.461477E-1,1.8902576E-2,-2.1186705E-1,3.642231E-2],"categories":[],"categories_nodes":[],"categories_segments":[],"categories_sizes":[],"default_left":[0,0,0,0,0,0,0,0,0,0,0,0,0,0,0],"id":9,"left_children":[1,3,5,7,9,11,13,-1,-1,-1,-1,-1,-1,-1,-1],"loss_changes":[6.846316E-1,6.412606E-1,5.6427276E-1,2.4254978E-1,6.751935E-1,7.4415237E-1,1.2416214E0,0E0,0E0,0E0,0E0,0E0,0E0,0E0,0E0],"parents":[2147483647,0,0,1,1,2,2,3,3,4,4,5,5,6,6],"right_children":[2,4,6,8,10,12,14,-1,-1,-1,-1,-1,-1,-1,-1],"split_conditions":[2.4205526E1,5.1879063E1,5.1832966E1,1.6080805E1,9.028977E0,1.9598286E1,5.4264465E1,-3.704782E-2,-2.3435403E-1,-9.247978E-2,1.2853402E-1,2.461477E-1,1.8902576E-2,-2.1186705E-1,3.642231E-2],"split_indices":[2,1,2,2,2,0,2,0,0,0,0,0,0,0,0],"split_type":[0,0,0,0,0,0,0,0,0,0,0,0,0,0,0],"sum_hessian":[2.1618376E1,5.503506E0,1.611487E1,2.4999971E0,3.0035093E0,4.7575083E0,1.1357361E1,1.3726836E0,1.1273134E0,1.6109751E0,1.392534E0,1.2465663E0,3.5109422E0,1.1632509E0,1.019411E1],"tree_param":{"num_deleted":"0","num_feature":"3","num_nodes":"15","size_leaf_vector":"1"}},{"base_weights":[7.747947E-4,-2.3072764E-1,8.7048024E-2,7.85872E-2,-3.9542985E-1,2.722342E-1,-6.8463385E-2,-2.1477146E-1,-3.6070235E-2,9.802634E-3,2.4781981E-1,-1.1378903E-1,1.3562667E-1],"categories":[],"categories_nodes":[],"categories_segments":[],"categories_sizes":[],"default_left":[0,0,0,0,0,0,0,0,0,0,0,0,0],"id":10,"left_children":[1,3,5,-1,7,9,11,-1,-1,-1,-1,-1,-1],"loss_changes":[4.64648E-1,6.16187E-1,5.065384E-1,0E0,3.666041E-1,1.0256598E0,1.790785E0,0E0,0E0,0E0,0E0,0E0,0E0],"parents":[2147483647,0,0,1,1,2,2,4,4,5,5,6,6],"right_children":[2,4,6,-1,8,10,12,-1,-1,-1,-1,-1,-1],"split_conditions":[2.4205526E1,6.5051594E0,6.118529E1,7.85872E-2,9.028977E0,5.3934223E1,5.5680126E1,-2.1477146E-1,-3.6070235E-2,9.802634E-3,2.4781981E-1,-1.1378903E-1,1.3562667E-1],"split_indices":[2,2,2,0,2,2,0,0,0,0,0,0,0],"split_type":[0,0,0,0,0,0,0,0,0,0,0,0,0],"sum_hessian":[2.125883E1,5.3170004E0,1.5941828E1,1.1841829E0,4.1328177E0,6.9340477E0,9.00778E0,1.1694795E0,2.9633381E0,5.579602E0,1.3544458E0,5.8099103E0,3.1978698E0],"tree_param":{"num_deleted":"0","num_feature":"3","num_nodes":"13","size_leaf_vector":"1"}},{"base_weights":[6.3943127E-3,-7.881466E-2,2.7924868E-1,1.7464101E-2,-1.8545114E-1,-7.703928E-2,2.3984146E-1,-4.2587146E-2,1.0099525E-1,1.9689098E-1,-2.2377211E-1],"categories":[],"categories_nodes":[],"categories_segments":[],"categories_sizes":[],"default_left":[0,0,0,0,0,0,0,0,0,0,0],"id":11,"left_children":[1,3,5,7,-1,9,-1,-1,-1,-1,-1],"loss_changes":[5.330132E-1,9.2102563E-1,1.071836E0,8.5411704E-1,0E0,2.5237136E0,0E0,0E0,0E0,0E0,0E0],"parents":[2147483647,0,0,1,1,2,2,3,3,5,5],"right_children":[2,4,6,8,-1,10,-1,-1,-1,-1,-1],"split_conditions":[7.699935E1,6.970158E1,5.487338E1,7.121792E1,-1.8545114E-1,3.4920956E1,2.3984146E-1,-4.2587146E-2,1.0099525E-1,1.9689098E-1,-2.2377211E-1],"split_indices":[2,2,0,1,0,0,0,0,0,0,0],"split_type":[0,0,0,0,0,0,0,0,0,0,0],"sum_hessian":[2.097902E1,1.6528519E1,4.4505E0,1.4846022E1,1.6824977E0,3.1470635E0,1.3034364E0,1.0271209E1,4.5748124E0,1.51014E0,1.6369237E0],"tree_param":{"num_deleted":"0","num_feature":"3","num_nodes":"11","size_leaf_vector":"1"}},{"base_weights":[9.370042E-3,-7.3610015E-2,2.531939E-1,1.6635781E-2,-2.1406578E-1,5.828316E-1,-8.756289E-2,-1.3095176E-1,2.6064955E-2,-1.790498E-2,3.0084905E-1],"categories":[],"categories_nodes":[],"categories_segments":[],"categories_sizes":[],"default_left":[0,0,0,0,0,0,0,0,0,0,0],"id":12,"left_children":[1,3,5,7,-1,9,-1,-1,-1,-1,-1],"loss_changes":[4.5155016E-1,9.7856396E-1,1.1867566E0,5.360041E-1,0E0,1.1013771E0,0E0,0E0,0E0,0E0,0E0],"parents":[2147483647,0,0,1,1,2,2,3,3,5,5],"right_children":[2,4,6,8,-1,10,-1,-1,-1,-1,-1],"split_conditions":[7.5555115E1,6.970158E1,6.3310146E1,9.310277E0,-2.1406578E-1,2.1233912E1,-8.756289E-2,-1.3095176E-1,2.6064955E-2,-1.790498E-2,3.0084905E-1],"split_indices":[2,2,1,1,0,1,0,0,0,0,0],"split_type":[0,0,0,0,0,0,0,0,0,0,0],"sum_hessian":[2.0396872E1,1.5738666E1,4.658205E0,1.4647109E1,1.0915563E0,2.8595686E0,1.7986364E0,1.2661E0,1.3381009E1,1.4694684E0,1.3901004E0],"tree_param":{"num_deleted":"0","num_feature":"3","num_nodes":"11","size_leaf_vector":"1"}},{"base_weights":[7.5374596E-4,-2.1439691E-1,8.443617E-2,5.280712E-2,-3.9042282E-1,2.3143625E-1,-1.0684664E-1,-3.1065907E-2,-2.0614874E-1,1.9562832E-1,1.8930092E-2,-1.5621832E-1,6.854561E-2],"categories":[],"categories_nodes":[],"categories_segments":[],"categories_sizes":[],"default_left":[0,0,0,0,0,0,0,0,0,0,0,0,0],"id":13,"left_children":[1,3,5,-1,7,9,11,-1,-1,-1,-1,-1,-1],"loss_changes":[3.9776674E-1,4.9396548E-1,4.718054E-1,0E0,3.1834042E-1,6.1785436E-1,1.1728386E0,0E0,0E0,0E0,0E0,0E0,0E0],"parents":[2147483647,0,0,1,1,2,2,4,4,5,5,6,6],"right_children":[2,4,6,-1,8,10,12,-1,-1,-1,-1,-1,-1],"split_conditions":[2.4205526E1,7.4550643E0,5.357747E1,5.280712E-2,6.375575E1,1.40924225E1,7.464914E1,-3.1065907E-2,-2.0614874E-1,1.9562832E-1,1.8930092E-2,-1.5621832E-1,6.854561E-2],"split_indices":[2,2,1,0,0,0,1,0,0,0,0,0,0],"split_type":[0,0,0,0,0,0,0,0,0,0,0,0,0],"sum_hessian":[2.0087366E1,5.187662E0,1.4899705E1,1.612094E0,3.5755682E0,8.306374E0,6.5933313E0,2.50391E0,1.0716581E0,1.5526518E0,6.7537217E0,2.7035823E0,3.8897488E0],"tree_param":{"num_deleted":"0","num_feature":"3","num_nodes":"13","size_leaf_vector":"1"}},{"base_weights":[-1.956932E-3,-2.9514015E-1,5.073049E-2,5.634278E-2,-1.9397132E-1,-9.460714E-2,1.0567688E-1,1.9414264E-1,-6.9460757E-3],"categories":[],"categories_nodes":[],"categories_segments":[],"categories_sizes":[],"default_left":[0,0,0,0,0,0,0,0,0],"id":14,"left_children":[1,3,5,-1,-1,-1,7,-1,-1],"loss_changes":[3.366711E-1,6.847669E-1,4.0559244E-1,0E0,0E0,0E0,1.189733E0,0E0,0E0],"parents":[2147483647,0,0,1,1,2,2,6,6],"right_children":[2,4,6,-1,-1,-1,8,-1,-1],"split_conditions":[9.028977E0,6.5051594E0,9.310277E0,5.634278E-2,-1.9397132E-1,-9.460714E-2,1.8485445E1,1.9414264E-1,-6.9460757E-3],"split_indices":[2,2,1,0,0,0,1,0,0],"split_type":[0,0,0,0,0,0,0,0,0],"sum_hessian":[1.9825865E1,2.3191357E0,1.750673E1,1.1728914E0,1.146244E0,1.6661859E0,1.5840543E1,2.2712855E0,1.3569257E1],"tree_param":{"num_deleted":"0","num_feature":"3","num_nodes":"9","size_leaf_vector":"1"}},{"base_weights":[-3.2955718E-3,4.282394E-2,-2.7191007E-1,-4.746156E-2,4.0456918E-1,-2.0185621E-1,7.961058E-2,3.5106037E-2,-1.24362774E-1,4.3325773E-3,2.090107E-1],"categories":[],"categories_nodes":[],"categories_segments":[],"categories_sizes":[],"default_left":[0,0,0,0,0,0,0,0,0,0,0],"id":15,"left_children":[1,3,5,7,9,-1,-1,-1,-1,-1,-1],"loss_changes":[2.6773098E-1,6.2362635E-1,8.603901E-1,9.9675053E-1,4.2317265E-1,0E0,0E0,0E0,0E0,0E0,0E0],"parents":[2147483647,0,0,1,1,2,2,3,3,4,4],"right_children":[2,4,6,8,10,-1,-1,-1,-1,-1,-1],"split_conditions":[9.218742E1,7.709672E1,4.31945E1,6.625223E1,6.451728E1,-2.0185621E-1,7.961058E-2,3.5106037E-2,-1.24362774E-1,4.3325773E-3,2.090107E-1],"split_indices":[1,1,0,0,0,0,0,0,0,0,0],"split_type":[0,0,0,0,0,0,0,0,0,0,0],"sum_hessian":[1.9671543E1,1.7506378E1,2.1651664E0,1.4705045E1,2.8013325E0,1.0953928E0,1.0697736E0,1.0625282E1,4.079763E0,1.6488384E0,1.1524942E0],"tree_param":{"num_deleted":"0","num_feature":"3","num_nodes":"11","size_leaf_vector":"1"}},{"base_weights":[-1.8604719E-3,-2.9860806E-1,5.1832933E-2,3.781433E-2,-1.7673701E-1,-7.883905E-2,9.89747E-2,1.5701655E-1,-3.602716E-4],"categories":[],"categories_nodes":[],"categories_segments":[],"categories_sizes":[],"default_left":[0,0,0,0,0,0,0,0,0],"id":16,"left_children":[1,3,5,-1,-1,-1,7,-1,-1],"loss_changes":[3.4025958E-1,4.77802E-1,2.9466137E-1,0E0,0E0,0E0,7.012429E-1,0E0,0E0],"parents":[2147483647,0,0,1,1,2,2,6,6],"right_children":[2,4,6,-1,-1,-1,8,-1,-1],"split_conditions":[9.028977E0,6.5051594E0,9.310277E0,3.781433E-2,-1.7673701E-1,-7.883905E-2,1.8485445E1,1.5701655E-1,-3.602716E-4],"split_indices":[2,2,1,0,0,0,1,0,0],"split_type":[0,0,0,0,0,0,0,0,0],"sum_hessian":[1.9383726E1,2.2710347E0,1.7112692E1,1.1525044E0,1.1185303E0,1.6338143E0,1.5478878E1,2.1490965E0,1.3329782E1],"tree_param":{"num_deleted":"0","num_feature":"3","num_nodes":"9","size_leaf_vector":"1"}},{"base_weights":[-4.1525573E-3,-8.2542196E-2,2.0016463E-1,1.7938627E-1,-2.769113E-1,-1.3243935E-1,2.193542E-1,-1.2831435E-1,1.183289E-1,-1.9433868E-1,-3.785401E-2,5.550489E-2,-1.0582674E-1],"categories":[],"categories_nodes":[],"categories_segments":[],"categories_sizes":[],"default_left":[0,0,0,0,0,0,0,0,0,0,0,0,0],"id":17,"left_children":[1,3,5,7,9,11,-1,-1,-1,-1,-1,-1,-1],"loss_changes":[3.4039506E-1,8.2974917E-1,1.1387087E0,1.100035E0,4.319418E-1,3.7816516E-1,0E0,0E0,0E0,0E0,0E0,0E0,0E0],"parents":[2147483647,0,0,1,1,2,2,3,3,4,4,5,5],"right_children":[2,4,6,8,10,12,-1,-1,-1,-1,-1,-1,-1],"split_conditions":[7.0248405E1,4.17411E1,7.464914E1,9.310277E0,9.028977E0,5.1832966E1,2.193542E-1,-1.2831435E-1,1.183289E-1,-1.9433868E-1,-3.785401E-2,5.550489E-2,-1.0582674E-1],"split_indices":[0,1,1,1,2,2,0,0,0,0,0,0,0],"split_type":[0,0,0,0,0,0,0,0,0,0,0,0,0],"sum_hessian":[1.9221401E1,1.4322391E1,4.89901E0,6.133745E0,8.188645E0,3.4737842E0,1.425226E0,1.3456889E0,4.7880564E0,1.413341E0,6.775305E0,1.4887943E0,1.9849899E0],"tree_param":{"num_deleted":"0","num_feature":"3","num_nodes":"13","size_leaf_vector":"1"}},{"base_weights":[-5.7879486E-3,-7.4666925E-2,1.7778598E-1,2.0629216E-2,-1.310832E-1,-1.4504473E-1,1.8366228E-1,-1.1033753E-1,2.8350353E-2,4.5110818E-2,-1.1297711E-1],"categories":[],"categories_nodes":[],"categories_segments":[],"categories_sizes":[],"default_left":[0,0,0,0,0,0,0,0,0,0,0],"id":18,"left_children":[1,3,5,7,-1,9,-1,-1,-1,-1,-1],"loss_changes":[2.6413706E-1,5.3138995E-1,8.894321E-1,4.0589628E-1,0E0,3.359477E-1,0E0,0E0,0E0,0E0,0E0],"parents":[2147483647,0,0,1,1,2,2,3,3,5,5],"right_children":[2,4,6,8,-1,10,-1,-1,-1,-1,-1],"split_conditions":[7.0248405E1,8.8721275E1,6.576129E1,9.310277E0,-1.310832E-1,5.1832966E1,1.8366228E-1,-1.1033753E-1,2.8350353E-2,4.5110818E-2,-1.1297711E-1],"split_indices":[0,1,1,1,0,2,0,0,0,0,0],"split_type":[0,0,0,0,0,0,0,0,0,0,0],"sum_hessian":[1.8839825E1,1.4130982E1,4.7088423E0,1.1934655E1,2.1963265E0,3.0835161E0,1.6253259E0,1.2713075E0,1.0663348E1,1.5089405E0,1.5745757E0],"tree_param":{"num_deleted":"0","num_feature":"3","num_nodes":"11","size_leaf_vector":"1"}},{"base_weights":[-8.525842E-3,-1.22941285E-1,7.986561E-2,1.9464397E-1,-3.4823075E-1,-7.838892E-2,4.201229E-1,1.2068253E-1,-6.321361E-2,-1.7571896E-1,-2.8845552E-2,3.6838766E-2,-2.1191111E-1,2.0222726E-1,1.947289E-2],"categories":[],"categories_nodes":[],"categories_segments":[],"categories_sizes":[],"default_left":[0,0,0,0,0,0,0,0,0,0,0,0,0,0,0],"id":19,"left_children":[1,3,5,7,9,11,13,-1,-1,-1,-1,-1,-1,-1,-1],"loss_changes":[2.081152E-1,7.073899E-1,6.6121733E-1,4.509884E-1,2.782387E-1,1.1993722E0,3.045807E-1,0E0,0E0,0E0,0E0,0E0,0E0,0E0,0E0],"parents":[2147483647,0,0,1,1,2,2,3,3,4,4,5,5,6,6],"right_children":[2,4,6,8,10,12,14,-1,-1,-1,-1,-1,-1,-1,-1],"split_conditions":[3.7558296E1,4.972485E1,7.709672E1,2.8654125E1,6.311386E1,6.3310146E1,8.8721275E1,1.2068253E-1,-6.321361E-2,-1.7571896E-1,-2.8845552E-2,3.6838766E-2,-2.1191111E-1,2.0222726E-1,1.947289E-2],"split_indices":[0,1,1,0,1,1,1,0,0,0,0,0,0,0,0],"split_type":[0,0,0,0,0,0,0,0,0,0,0,0,0,0,0],"sum_hessian":[1.8607399E1,7.9394994E0,1.0667899E1,3.351291E0,4.588208E0,7.806633E0,2.8612664E0,2.221167E0,1.1301239E0,1.6809163E0,2.9072921E0,6.5217395E0,1.2848935E0,1.14495E0,1.7163162E0],"tree_param":{"num_deleted":"0","num_feature":"3","num_nodes":"15","size_leaf_vector":"1"}}]},"name":"gbtree"},"learner_model_param":{"base_score":"[5.4E-1]","boost_from_average":"1","num_class":"0","num_feature":"3","num_target":"1"},"objective":{"name":"binary:logistic","reg_loss_param":{"scale_pos_weight":"1"}}},"version":[3,2,0]}